<?xml version="1.0"?>
<opencv_storage>
<cascade>
  <stageType>BOOST</stageType>
  <featureType>HAAR</featureType>
  <height>24</height>
  <width>24</width>
  <stageParams>
    <boostType>GAB</boostType>
    <minHitRate>9.9500000476837158e-01</minHitRate>
    <maxFalseAlarm>5.0000000000000000e-01</maxFalseAlarm>
    <weightTrimRate>9.4999998807907104e-01</weightTrimRate>
    <maxDepth>1</maxDepth>
    <maxWeakCount>100</maxWeakCount></stageParams>
  <featureParams>
    <maxCatCount>0</maxCatCount>
    <featSize>1</featSize>
    <mode>BASIC</mode></featureParams>
  <stageNum>4</stageNum>
  <stages>
    <!-- stage 0 -->
    <_>
      <maxWeakCount>1</maxWeakCount>
      <stageThreshold>8.9473682641983032e-01</stageThreshold>
      <weakClassifiers>
        <_>
          <internalNodes>
            0 -1 0 -3.0708077549934387e-01</internalNodes>
          <leafValues>
            8.9473682641983032e-01 -1.</leafValues></_></weakClassifiers></_>
    <!-- stage 1 -->
    <_>
      <maxWeakCount>2</maxWeakCount>
      <stageThreshold>-3.3085292577743530e-01</stageThreshold>
      <weakClassifiers>
        <_>
          <internalNodes>
            0 -1 4 -2.5940901041030884e-01</internalNodes>
          <leafValues>
            6.4705884456634521e-01 -9.9200797080993652e-01</leafValues></_>
        <_>
          <internalNodes>
            0 -1 1 -4.8030264675617218e-02</internalNodes>
          <leafValues>
            9.4813150167465210e-01 -9.7791171073913574e-01</leafValues></_></weakClassifiers></_>
    <!-- stage 2 -->
    <_>
      <maxWeakCount>2</maxWeakCount>
      <stageThreshold>-2.5294983386993408e-01</stageThreshold>
      <weakClassifiers>
        <_>
          <internalNodes>
            0 -1 2 3.2938830554485321e-02</internalNodes>
          <leafValues>
            -9.9003982543945313e-01 8.5714286565780640e-01</leafValues></_>
        <_>
          <internalNodes>
            0 -1 6 -3.1029104720801115e-03</internalNodes>
          <leafValues>
            7.3708999156951904e-01 -9.7740060091018677e-01</leafValues></_></weakClassifiers></_>
    <!-- stage 3 -->
    <_>
      <maxWeakCount>2</maxWeakCount>
      <stageThreshold>-8.8986796140670776e-01</stageThreshold>
      <weakClassifiers>
        <_>
          <internalNodes>
            0 -1 3 -3.4040354192256927e-02</internalNodes>
          <leafValues>
            7.1428574621677399e-02 -9.9393939971923828e-01</leafValues></_>
        <_>
          <internalNodes>
            0 -1 5 4.2764171957969666e-02</internalNodes>
          <leafValues>
            -9.6129655838012695e-01 7.7924907207489014e-01</leafValues></_></weakClassifiers></_></stages>
  <features>
    <_>
      <rects>
        <_>
          0 7 24 7 -1.</_>
        <_>
          8 7 8 7 3.</_></rects>
      <tilted>0</tilted></_>
    <_>
      <rects>
        <_>
          2 17 21 1 -1.</_>
        <_>
          9 17 7 1 3.</_></rects>
      <tilted>0</tilted></_>
    <_>
      <rects>
        <_>
          5 16 16 4 -1.</_>
        <_>
          5 18 16 2 2.</_></rects>
      <tilted>0</tilted></_>
    <_>
      <rects>
        <_>
          10 10 4 12 -1.</_>
        <_>
          10 14 4 4 3.</_></rects>
      <tilted>0</tilted></_>
    <_>
      <rects>
        <_>
          11 1 11 21 -1.</_>
        <_>
          11 8 11 7 3.</_></rects>
      <tilted>0</tilted></_>
    <_>
      <rects>
        <_>
          13 3 9 6 -1.</_>
        <_>
          16 3 3 6 3.</_></rects>
      <tilted>0</tilted></_>
    <_>
      <rects>
        <_>
          14 20 6 2 -1.</_>
        <_>
          14 20 3 1 2.</_>
        <_>
          17 21 3 1 2.</_></rects>
      <tilted>0</tilted></_></features></cascade>
</opencv_storage>
